digraph Tree {
node [shape=box] ;
0 [label="X[5] <= 244.0\ngini = 0.109\nsamples = 173\nvalue = [163, 10]"] ;
1 [label="X[5] <= 158.0\ngini = 0.05\nsamples = 156\nvalue = [152, 4]"] ;
0 -> 1 [labeldistance=2.5, labelangle=45, headlabel="True"] ;
2 [label="gini = 0.0\nsamples = 118\nvalue = [118, 0]"] ;
1 -> 2 ;
3 [label="X[1] <= 11.0\ngini = 0.188\nsamples = 38\nvalue = [34, 4]"] ;
1 -> 3 ;
4 [label="X[5] <= 165.0\ngini = 0.375\nsamples = 12\nvalue = [9, 3]"] ;
3 -> 4 ;
5 [label="gini = 0.0\nsamples = 1\nvalue = [0, 1]"] ;
4 -> 5 ;
6 [label="X[0] <= 540000.0\ngini = 0.298\nsamples = 11\nvalue = [9, 2]"] ;
4 -> 6 ;
7 [label="X[1] <= 7.0\ngini = 0.444\nsamples = 6\nvalue = [4, 2]"] ;
6 -> 7 ;
8 [label="gini = 0.0\nsamples = 3\nvalue = [3, 0]"] ;
7 -> 8 ;
9 [label="X[5] <= 222.5\ngini = 0.444\nsamples = 3\nvalue = [1, 2]"] ;
7 -> 9 ;
10 [label="gini = 0.0\nsamples = 2\nvalue = [0, 2]"] ;
9 -> 10 ;
11 [label="gini = 0.0\nsamples = 1\nvalue = [1, 0]"] ;
9 -> 11 ;
12 [label="gini = 0.0\nsamples = 5\nvalue = [5, 0]"] ;
6 -> 12 ;
13 [label="X[2] <= 2.5\ngini = 0.074\nsamples = 26\nvalue = [25, 1]"] ;
3 -> 13 ;
14 [label="X[0] <= 361000.0\ngini = 0.5\nsamples = 2\nvalue = [1, 1]"] ;
13 -> 14 ;
15 [label="gini = 0.0\nsamples = 1\nvalue = [0, 1]"] ;
14 -> 15 ;
16 [label="gini = 0.0\nsamples = 1\nvalue = [1, 0]"] ;
14 -> 16 ;
17 [label="gini = 0.0\nsamples = 24\nvalue = [24, 0]"] ;
13 -> 17 ;
18 [label="X[5] <= 253.225\ngini = 0.457\nsamples = 17\nvalue = [11, 6]"] ;
0 -> 18 [labeldistance=2.5, labelangle=-45, headlabel="False"] ;
19 [label="gini = 0.0\nsamples = 2\nvalue = [0, 2]"] ;
18 -> 19 ;
20 [label="X[1] <= 29.5\ngini = 0.391\nsamples = 15\nvalue = [11, 4]"] ;
18 -> 20 ;
21 [label="X[1] <= 1.5\ngini = 0.26\nsamples = 13\nvalue = [11, 2]"] ;
20 -> 21 ;
22 [label="X[5] <= 303.225\ngini = 0.5\nsamples = 2\nvalue = [1, 1]"] ;
21 -> 22 ;
23 [label="gini = 0.0\nsamples = 1\nvalue = [1, 0]"] ;
22 -> 23 ;
24 [label="gini = 0.0\nsamples = 1\nvalue = [0, 1]"] ;
22 -> 24 ;
25 [label="X[2] <= 3.5\ngini = 0.165\nsamples = 11\nvalue = [10, 1]"] ;
21 -> 25 ;
26 [label="gini = 0.0\nsamples = 7\nvalue = [7, 0]"] ;
25 -> 26 ;
27 [label="X[5] <= 281.055\ngini = 0.375\nsamples = 4\nvalue = [3, 1]"] ;
25 -> 27 ;
28 [label="gini = 0.0\nsamples = 1\nvalue = [0, 1]"] ;
27 -> 28 ;
29 [label="gini = 0.0\nsamples = 3\nvalue = [3, 0]"] ;
27 -> 29 ;
30 [label="gini = 0.0\nsamples = 2\nvalue = [0, 2]"] ;
20 -> 30 ;
}